6.800977838952171339e-02,4.846657494719390780e-01,-5.256257107446447030e-01,1.303835824874537419e-01,2.914596118549999115e-01,-5.117354033828642734e-01,5.904524356547058428e-01,3.671520711675944071e-01,-2.215046459335967555e-02,2.028517595938119644e-01,4.088352938090527022e-01,-3.463775600598604232e-01,9.555665629631480140e-01,1.593569274222617072e-01,3.399762167762077070e-02,7.712039653670357264e-01,8.884230210786503434e-01,-1.920896913071785672e-01
-3.591129737015310575e-01,-2.745967537239908385e-01,7.722193871879401428e-02,9.898774037422999328e-01,-3.559096770764142992e-01,-9.629010259673220773e-01,-5.113757304092556577e-01,2.524665239193930599e-01,8.700421574841501471e-01,4.335527515630932527e-01,-6.416965615516470045e-01,5.330620019810239363e-01,-1.696783578053102648e-01,9.368942195025977693e-01,8.701959093006055301e-01,2.425986342827426423e-01,8.698763802569744463e-01,-8.019771207031740623e-01
9.547867397793154964e-01,9.734679395638978772e-01,-6.582980951591763663e-01,4.132463713661735927e-01,-9.789489331746326073e-02,8.037052614205684176e-01,-6.018075424339850432e-01,-4.115429860986312693e-01,-1.987227607771100413e-01,7.603689173088143960e-01,2.538712123848458901e-01,-6.912785266457244227e-01,-3.752185360230406719e-01,-1.158243585250180452e-01,-5.377860063362831511e-01,1.235647032183682104e-01,-3.052929089816127650e-01,-1.249290167594738765e-01
9.529310346136703469e-01,4.352015209734978463e-01,1.581197617251739462e-01,1.886680248870775678e-02,-9.395822648830105539e-01,6.581722614891765133e-01,6.023835493720195444e-01,6.611247372388364685e-01,9.035667819003425638e-01,-7.521861102377178643e-01,-3.818791502082137246e-01,8.723074957644325611e-01,5.747136087823612183e-01,-7.848773361366068180e-02,3.396516219212604160e-01,5.820505085567744263e-01,5.951620278652396401e-01,2.822491813871068622e-01
-1.757887172917311780e-01,9.562634183047908909e-01,1.437922776739672948e-01,2.447865234238788545e-03,9.034171662042975726e-01,-6.972469578143947189e-01,6.557988558082346042e-01,2.708194746918102247e-01,7.811428694016913088e-01,-2.801314462910986514e-01,-7.819748600515206149e-01,-4.332358190047629343e-01,2.499652257291182789e-01,-3.357794562342464317e-02,1.011302794877837474e-01,1.864854274074794205e-01,8.126893206244865109e-01,7.503620430274660080e-01
2.880177114348245748e-01,-9.395353717867769294e-01,7.820653452291048691e-01,1.898630673426795479e-01,6.786454617709969384e-02,6.839231237203085012e-01,-8.203528139328306601e-01,4.658014528247871322e-01,5.439588367484393672e-01,4.164855253369248445e-02,1.228646180370027707e-01,5.427742534936963459e-01,-8.906221526576365566e-01,4.119935619414307748e-01,-6.011580036955788131e-01,6.878280406267178737e-01,-4.998524113366764610e-03,-6.119284622532117357e-01
-1.767929406209536314e-01,8.146216388611571269e-02,2.648780631067704228e-01,-4.648988685657569064e-01,3.377241879428738436e-02,5.528891041140187035e-01,7.787973593315649090e-01,-8.734530342171971107e-01,8.437356964776703272e-01,-5.023792021604283065e-01,-3.488090609660807750e-01,-1.400125466802148999e-02,-1.977361242077684267e-01,-3.301634415638365905e-01,6.161012277958539674e-01,-4.278209416597533732e-01,-9.319194968784660915e-02,-4.751370706711455227e-02
-8.660436312156907235e-01,-4.205576839253732935e-02,-8.320249823057983551e-01,9.673207814510729197e-01,5.257610980963778324e-01,1.385443772281149677e-01,4.676071126368039899e-01,1.449625773354319413e-01,-1.426991013076266412e-01,-6.966084826113316808e-01,-7.192866906743695665e-01,-7.951724051595143727e-02,8.287847835725583590e-01,3.875358760810945213e-01,6.508772329311005578e-01,6.354368392746021499e-01,8.502561453735686392e-01,-6.563359657821712378e-01
-3.652883602521923567e-01,2.727340119722663214e-01,4.570740305362972489e-01,3.270438093016876380e-01,5.388147865515746648e-01,-2.751658418454299149e-01,6.363184738477336566e-01,-9.947206663491390266e-01,-7.761950584885908277e-01,6.368177026750851955e-01,3.608785641265737087e-01,1.511767658472320530e-01,4.362149597464402007e-01,4.157180354749461237e-01,-6.469330045473371538e-01,2.886245175239139371e-01,4.662836014531352991e-01,2.879229791513882031e-01
4.308660639478119059e-01,-2.430731923242541725e-01,-2.767093323076066369e-01,-9.392688890563276605e-01,-1.273567945626499220e-01,2.311153364296953949e-01,6.779117581620637267e-01,-5.107670497287590816e-01,-6.000392350984489198e-01,7.819486872735033067e-01,-8.509639369414609966e-01,-5.957806401740717295e-01,1.778374007838829929e-01,-9.354800414839585798e-01,-4.009059184633729789e-01,-9.614821056889577555e-01,-4.555940453797537870e-01,9.044658771550049270e-01
4.767826803781944900e-01,2.179375986934397602e-01,-6.426171872444799149e-01,2.372962105375431285e-02,8.431635216090234142e-01,5.889185043403879494e-01,6.154154776852975850e-01,3.866512573578528844e-01,-3.790287228030964073e-01,8.555135937863871387e-01,6.777002361884543191e-02,-6.810300840578005221e-01,1.420648186642514688e-01,7.891058106060511168e-01,9.067365868316390465e-01,9.624186287883573776e-01,1.771197158971540286e-01,-8.881597585255758265e-01
-5.985566073239869667e-01,-3.033214393231156158e-01,6.403179203607858305e-01,7.985693665927282581e-01,5.134521482048488572e-01,-6.267174269610069626e-01,8.653606459496501202e-01,-7.755090708672116584e-01,4.495402544378224174e-01,-8.332203801747901650e-01,-9.374789148589210974e-01,-3.620514957949629853e-01,-7.596681142962222744e-01,9.858654257786745312e-01,-4.496962750776267725e-01,4.480338246822597181e-01,8.591500248434664755e-01,-7.353128102801436139e-01
7.007772493361041910e-01,1.068125504504564560e-01,7.531677679808257420e-01,-8.560493300863769583e-02,5.037695471656222779e-01,-8.948663731340393834e-01,-5.646704425903665836e-01,1.850919363156866559e-01,5.584170855343990603e-01,3.023117713896128489e-01,-6.314788483796118790e-02,7.737826380720738140e-01,6.287322416729113073e-01,-6.583146682892209167e-01,2.623577600798334686e-01,3.644262371785322863e-01,-7.490934276727267971e-02,8.123797202239513293e-01
-5.951953990810203710e-01,8.776433956023290683e-01,-6.480652833454225714e-01,8.107503885602080906e-01,5.012804586015946473e-01,-5.303115208132216374e-01,7.696492827415888360e-01,-1.167939769271264527e-01,-8.164864851068329710e-01,-6.572900500530238777e-01,8.383398534815933445e-02,-3.473827357453473930e-02,8.114380496846340662e-01,8.576454435600089354e-02,-9.965146288590354118e-02,8.056830051584373820e-02,4.813507260137022126e-01,3.147380089266049730e-01
-8.672253838999031128e-01,-6.855910772623838856e-01,3.221922285508749262e-02,-1.935816983196712027e-01,-2.598151014631269184e-01,-2.928209756193034252e-02,-2.499167662695600534e-01,8.787708676097905069e-03,1.217373401744890060e-01,-5.907884152180695736e-01,-1.665277261610318416e-01,3.900302384521923127e-01,7.302887782557487828e-01,-6.798404711784480359e-01,3.768810146384748982e-02,1.533060406900821349e-02,7.326144323313745765e-01,5.661914693225555961e-01
-8.258832701230773843e-01,-9.743241610213531079e-01,7.414567708023613868e-01,-1.764568152172774074e-01,-9.850811161589736464e-01,3.269665593256809721e-02,2.999192059192836712e-01,9.925634147497761628e-01,-4.227137533982570083e-01,-3.873039607820085717e-01,2.139891450360518199e-01,7.505671606704740206e-01,9.011707944497693301e-01,4.330549318956589122e-01,-4.514684097062113821e-01,3.282699506171935511e-01,9.914683390230309978e-01,3.178846579663934246e-01
-3.091640972545934840e-01,9.495805407005530885e-01,-8.611504098677258412e-01,-6.475738432776809717e-01,-2.809700330279627511e-01,7.380575280894763335e-01,-1.674171388484029244e-01,-7.891237766430803102e-01,2.070040578456229241e-01,-7.915713232921279818e-01,6.459797582362165613e-01,5.113586895682880051e-01,2.391993871856477050e-01,8.067643725987818648e-01,-1.227550776498809171e-02,6.593025530343639140e-01,4.085978992109595698e-01,-6.783066637339623117e-01
8.577738673085031351e-01,-4.643539590806611272e-01,-7.822186253491283381e-01,-3.332833984948360140e-01,8.863661478160413942e-01,9.204821998243397640e-01,-9.647896951299883561e-02,7.451530476960752658e-01,9.605100435779498902e-01,-2.824188663435058810e-01,3.779414586434139967e-01,-5.569426245202713233e-01,1.984667830002955213e-01,4.106717155382690887e-01,-3.743020936728180814e-02,-2.359752174337272912e-01,-9.621929834555857930e-01,7.092209353673619709e-01
